-5.563080310821533203e-03,-6.877323240041732788e-02,4.479167610406875610e-02,3.979706019163131714e-02,9.187679737806320190e-02,6.721428781747817993e-02,9.274623543024063110e-02,9.290011972188949585e-02,-7.226420938968658447e-02,-3.277212381362915039e-04,-5.611202865839004517e-02,1.234076917171478271e-02,-2.213078737258911133e-01,-1.870640963315963745e-01,-3.353778123855590820e-01,-2.181241959333419800e-01,-3.681883513927459717e-01,-2.479318082332611084e-01,-1.435984671115875244e-01,-1.817480474710464478e-02,-7.610802352428436279e-02,6.298234313726425171e-02,-1.331635098904371262e-02,-3.348976671695709229e-01,-2.054466493427753448e-02,-7.092747092247009277e-02,-1.383570879697799683e-01,8.221560716629028320e-02,-1.022896319627761841e-01,8.472087234258651733e-02,2.015691995620727539e-02,7.898271083831787109e-02,2.241091616451740265e-02,-1.446458101272583008e-01,-5.424597859382629395e-02,3.840019926428794861e-02,7.369948178529739380e-02,3.420396149158477783e-01,-5.442329868674278259e-02,-4.654613882303237915e-02,-4.608643054962158203e-02,1.264056563377380371e-01,7.913332432508468628e-02,1.923723518848419189e-01,-4.282911121845245361e-02,-2.037509530782699585e-02,-9.864705801010131836e-02,2.082648724317550659e-01,-7.831033319234848022e-02,-4.807583242654800415e-02,6.039155274629592896e-02,2.126340568065643311e-02,-9.436944872140884399e-02,-6.565880030393600464e-02,1.696803048253059387e-02,-1.712929159402847290e-01,-4.217560216784477234e-02,5.266135334968566895e-01,8.003444224596023560e-02,8.676984161138534546e-02,-4.065484926104545593e-02,5.012854188680648804e-02,-4.600947722792625427e-02,-1.482873708009719849e-01,6.886440515518188477e-02,-1.637909412384033203e-01,-9.514929354190826416e-02,3.058369159698486328e-01,-7.676748931407928467e-02,5.157873034477233887e-03,8.684643357992172241e-02,4.084325581789016724e-02,4.465655982494354248e-02,-6.974558532238006592e-02,2.291623800992965698e-01,-1.676987111568450928e-02,-1.787402927875518799e-01,-2.316797375679016113e-01,2.001623958349227905e-01,5.271673202514648438e-03,4.476470500230789185e-02,-9.213353693485260010e-02,-2.300634235143661499e-02,-9.730324894189834595e-02,-4.634112119674682617e-04,-3.943872451782226562e-02,9.155248105525970459e-02,-7.021881639957427979e-03,-6.562113761901855469e-03,-4.161750152707099915e-02,6.592183560132980347e-02,-8.127839863300323486e-02,3.324434906244277954e-02,-7.664060592651367188e-02,8.592597395181655884e-02,-6.826487183570861816e-02,8.061855286359786987e-02,4.248691350221633911e-02,-1.122214645147323608e-02,-3.010787814855575562e-02
1.227682828903198242e-02,2.301029115915298462e-02,2.080227434635162354e-02,-4.541477188467979431e-02,-1.608408987522125244e-02,-8.896265178918838501e-02,-5.837576463818550110e-02,8.741053193807601929e-02,1.134842634201049805e-02,-7.628301531076431274e-02,-5.720878764986991882e-02,-6.976707279682159424e-02,1.591349095106124878e-01,9.841866791248321533e-02,-1.500351727008819580e-01,4.326921999454498291e-01,-1.716034859418869019e-01,3.514459133148193359e-01,5.019956231117248535e-01,5.696501582860946655e-02,-8.008654415607452393e-02,1.288717053830623627e-02,6.327660381793975830e-02,8.406595885753631592e-02,2.744816839694976807e-01,1.345941424369812012e-01,2.831707000732421875e-01,-1.558865010738372803e-01,-1.430181860923767090e-01,2.716364711523056030e-02,-8.924227952957153320e-02,1.262272745370864868e-01,1.345208138227462769e-01,1.096591725945472717e-01,5.715054646134376526e-02,2.183726131916046143e-01,-9.130269289016723633e-02,8.468840271234512329e-02,-7.950550317764282227e-02,5.559586733579635620e-02,4.696872085332870483e-02,4.003485292196273804e-02,-1.354010403156280518e-02,7.486543618142604828e-03,1.608382612466812134e-01,1.136608421802520752e-02,-6.665500998497009277e-02,-1.438528746366500854e-01,3.708873689174652100e-01,9.404895454645156860e-02,4.889816045761108398e-05,-2.783988416194915771e-02,-4.653512313961982727e-02,7.340834010392427444e-03,-4.901466518640518188e-02,2.980534434318542480e-01,1.777235269546508789e-01,-1.420121490955352783e-01,2.971693128347396851e-02,9.034850448369979858e-02,-2.019836008548736572e-02,-7.809866964817047119e-02,-5.080485343933105469e-02,4.239428415894508362e-02,-9.915813803672790527e-02,7.622405141592025757e-02,-1.466992199420928955e-01,-1.392448991537094116e-01,-3.572086989879608154e-02,3.270126134157180786e-02,-2.093397080898284912e-03,8.217831701040267944e-02,3.454278036952018738e-02,3.320460766553878784e-02,6.527307629585266113e-02,-7.588540017604827881e-02,-1.602690666913986206e-01,-1.529062539339065552e-01,-8.258327096700668335e-02,-4.718638584017753601e-02,8.944021910429000854e-02,-4.971789196133613586e-02,1.255389302968978882e-02,-5.805140733718872070e-02,4.518844187259674072e-03,2.352174371480941772e-02,1.572462469339370728e-01,-7.038371264934539795e-02,4.728771746158599854e-03,2.585520595312118530e-02,7.492164522409439087e-02,9.886751323938369751e-02,-6.152789667248725891e-02,-2.936372905969619751e-02,6.410390883684158325e-02,1.820764690637588501e-02,-1.164946705102920532e-02,-6.690749526023864746e-02,-1.650558412075042725e-02,6.969649344682693481e-02
-5.703588947653770447e-02,-5.374634265899658203e-02,-5.960507318377494812e-02,2.100442349910736084e-02,5.547050386667251587e-02,1.018208265304565430e-02,2.630332857370376587e-02,-9.590669721364974976e-02,-7.937834411859512329e-02,-8.985519409179687500e-03,-1.538413763046264648e-02,-8.491223305463790894e-02,-2.905463427305221558e-02,-1.375023871660232544e-01,-1.417638659477233887e-01,-1.246650740504264832e-01,-2.730495929718017578e-01,-1.068065986037254333e-01,-2.121642678976058960e-01,-6.021477282047271729e-03,8.315751701593399048e-02,-8.002643287181854248e-02,-1.703446544706821442e-02,8.621240966022014618e-03,-2.807872593402862549e-01,-5.267485231161117554e-02,-2.753934860229492188e-01,-4.735222086310386658e-02,-2.721363306045532227e-01,-3.328920900821685791e-02,4.134202748537063599e-02,-7.496689260005950928e-02,-1.944820880889892578e-01,-3.471128642559051514e-02,-3.127127140760421753e-02,-2.905058860778808594e-01,-5.501586198806762695e-02,-2.701905369758605957e-01,-3.942439705133438110e-02,4.432240873575210571e-02,9.164161235094070435e-02,-7.011528313159942627e-02,1.773224771022796631e-02,-1.423684954643249512e-01,-8.033013343811035156e-02,-2.659459412097930908e-02,1.072274148464202881e-02,-7.346954196691513062e-02,-1.398576050996780396e-01,-5.200834199786186218e-02,-6.230989843606948853e-02,-9.009476751089096069e-02,-8.675688505172729492e-02,1.404414046555757523e-02,5.656500160694122314e-02,-1.554936449974775314e-02,5.865398328751325607e-03,2.215579301118850708e-01,2.195684611797332764e-02,-9.069506078958511353e-02,-8.734425157308578491e-02,4.210615903139114380e-02,4.150703921914100647e-02,4.369957838207483292e-03,-4.773692041635513306e-02,-7.409860938787460327e-02,2.042862921953201294e-01,1.574925035238265991e-01,-4.560692235827445984e-02,3.881908953189849854e-03,-3.944977745413780212e-02,4.060205072164535522e-02,-1.344479471445083618e-01,7.266081124544143677e-02,8.577813953161239624e-02,-6.007325649261474609e-02,-1.080345585942268372e-01,2.300630360841751099e-01,3.155613243579864502e-01,9.276098757982254028e-02,-1.710244268178939819e-02,2.827150374650955200e-02,2.261934429407119751e-02,-4.107897356152534485e-02,-1.365564763545989990e-02,-2.307860553264617920e-02,-1.935257464647293091e-01,-4.000035673379898071e-02,5.412919074296951294e-02,-8.799449354410171509e-02,9.251261502504348755e-02,5.561716109514236450e-02,-5.142411217093467712e-02,3.367627412080764771e-02,4.617758840322494507e-02,2.771662920713424683e-02,-1.695320010185241699e-03,2.694367617368698120e-02,-6.423026323318481445e-02,5.292398482561111450e-02
2.077833563089370728e-02,4.036769270896911621e-03,7.123557478189468384e-02,-9.241139143705368042e-02,-1.470664888620376587e-02,-5.967317894101142883e-02,8.101003617048263550e-02,6.117748469114303589e-02,-8.495738357305526733e-02,1.077352464199066162e-02,4.810202866792678833e-02,1.729569584131240845e-02,-1.042120978236198425e-01,-4.164669290184974670e-02,-6.500801444053649902e-02,-4.248313978314399719e-02,-3.075484931468963623e-01,1.648125611245632172e-02,9.255570173263549805e-02,-5.356736108660697937e-02,-8.588241785764694214e-02,1.313001364469528198e-01,-5.722945183515548706e-02,-8.804488182067871094e-02,-1.207252517342567444e-01,-7.768450677394866943e-02,3.082774579524993896e-01,-2.074253112077713013e-01,2.670105397701263428e-01,-9.528261423110961914e-02,-4.195242002606391907e-02,2.539804279804229736e-01,7.685261964797973633e-02,-6.909835338592529297e-02,-5.358860269188880920e-02,1.493277549743652344e-01,4.649444669485092163e-02,1.950105428695678711e-01,9.427284449338912964e-02,-3.218679130077362061e-02,-8.298734575510025024e-02,5.460754036903381348e-04,-6.108656525611877441e-03,1.650812625885009766e-01,1.160643622279167175e-02,5.803607404232025146e-03,-9.780448675155639648e-02,4.511816054582595825e-02,2.046684920787811279e-02,-3.779127821326255798e-02,4.105851054191589355e-03,-7.369156926870346069e-02,-6.328286230564117432e-02,2.703511714935302734e-02,-1.096577420830726624e-01,-6.447869539260864258e-02,-2.326365560293197632e-01,-6.585397571325302124e-02,8.068830519914627075e-02,-4.746716096997261047e-02,9.426904469728469849e-02,-6.922914832830429077e-02,5.228449404239654541e-02,4.309529066085815430e-02,-5.987806618213653564e-02,1.932586133480072021e-01,-1.983214467763900757e-01,-2.751663625240325928e-01,-8.890946954488754272e-02,-9.709552675485610962e-02,-8.077530562877655029e-02,1.761673390865325928e-02,-1.005561649799346924e-01,-1.435037702322006226e-02,-1.164449471980333328e-02,-9.395346045494079590e-03,4.883712828159332275e-01,4.709542393684387207e-01,-2.960591316223144531e-01,-9.061515331268310547e-03,7.988887280225753784e-02,9.367545694112777710e-02,2.081017196178436279e-02,6.107733398675918579e-02,4.887219518423080444e-02,2.884904295206069946e-02,1.956803202629089355e-01,8.569211512804031372e-02,6.107819825410842896e-02,1.664012670516967773e-02,-1.430521160364151001e-02,-4.978066682815551758e-02,-9.464468806982040405e-02,6.343554705381393433e-02,-5.678415298461914062e-03,-1.382406800985336304e-02,-8.292986452579498291e-02,-7.959375530481338501e-02,-8.042262494564056396e-02,-8.427877724170684814e-02
-3.596532344818115234e-02,3.740026801824569702e-02,-7.086392492055892944e-02,-6.018216535449028015e-02,-9.777054935693740845e-02,3.416871279478073120e-02,-5.032422766089439392e-02,4.704410582780838013e-02,1.788529008626937866e-02,-6.405316293239593506e-02,-7.982065528631210327e-02,-5.256844684481620789e-02,8.725286461412906647e-03,-1.473089307546615601e-01,1.167730521410703659e-02,-1.178964152932167053e-01,-8.667748421430587769e-02,-1.700711436569690704e-02,-1.539477705955505371e-01,8.552173525094985962e-02,6.232557445764541626e-02,1.542555987834930420e-01,-5.389775708317756653e-02,-7.135665416717529297e-02,1.492327153682708740e-01,1.318958103656768799e-01,2.934541404247283936e-01,3.548183739185333252e-01,9.170345962047576904e-02,-5.360071733593940735e-02,4.994802922010421753e-02,1.826486885547637939e-01,-1.355381011962890625e-01,-6.167671084403991699e-02,-2.917063189670443535e-03,-4.412551969289779663e-02,-5.808987841010093689e-02,2.732762694358825684e-01,7.140203565359115601e-02,2.579436451196670532e-02,-5.441574007272720337e-02,1.925324201583862305e-01,5.801969021558761597e-02,1.889547854661941528e-01,2.173219621181488037e-01,-8.270424604415893555e-02,8.463724702596664429e-02,4.157773554325103760e-01,-5.741812288761138916e-02,1.563124358654022217e-02,3.107770532369613647e-02,1.851126551628112793e-03,5.215121060609817505e-02,-8.659894019365310669e-02,8.077435940504074097e-02,-2.950969040393829346e-01,1.475777197629213333e-02,2.994979023933410645e-01,-3.373624384403228760e-02,5.122514814138412476e-02,-8.636581152677536011e-02,2.467714250087738037e-03,1.244263797998428345e-01,-1.801243722438812256e-01,-3.704712912440299988e-02,-3.064630925655364990e-01,2.999941110610961914e-01,9.049726277589797974e-02,9.329941123723983765e-02,8.441578596830368042e-02,4.810370504856109619e-03,-4.050368070602416992e-02,7.704902440309524536e-03,-9.769683331251144409e-02,-6.662128865718841553e-02,-3.225781023502349854e-02,-1.461728569120168686e-02,-3.706497848033905029e-01,-3.245585039258003235e-02,-7.276950776576995850e-02,4.058904200792312622e-02,-9.535751491785049438e-02,2.970114350318908691e-03,-5.667398124933242798e-02,1.784576475620269775e-02,-6.409020721912384033e-02,7.860241830348968506e-02,1.229709386825561523e-02,-6.799224019050598145e-02,8.599042147397994995e-02,-8.821880817413330078e-02,5.454368144273757935e-02,8.329872041940689087e-02,-8.851014077663421631e-03,4.356435686349868774e-02,7.722125202417373657e-02,-8.221840858459472656e-02,8.610863238573074341e-02,-2.866639941930770874e-02,-2.486278861761093140e-02
7.569844275712966919e-02,-6.388872861862182617e-02,-1.266315579414367676e-03,5.763008445501327515e-02,5.751740187406539917e-02,3.190065175294876099e-02,7.638580352067947388e-02,6.382157653570175171e-02,-9.112963825464248657e-02,-4.043996334075927734e-03,7.027762383222579956e-02,1.131334155797958374e-02,-5.333574488759040833e-02,-1.514531522989273071e-01,-1.220318675041198730e-01,-1.679633408784866333e-01,-1.185239329934120178e-01,-2.214301228523254395e-01,-4.212393984198570251e-02,-2.037082612514495850e-02,-1.644740998744964600e-02,-9.630481898784637451e-02,1.849707402288913727e-02,-4.383357986807823181e-02,-1.978854238986968994e-01,-2.766118645668029785e-01,-2.761951982975006104e-01,-2.801696658134460449e-01,-2.805669307708740234e-01,9.972397238016128540e-02,-5.110567808151245117e-02,-1.180081143975257874e-01,-1.578778959810733795e-02,-1.769953221082687378e-01,-2.766771316528320312e-01,-2.769980728626251221e-01,2.112706750631332397e-02,-1.260700076818466187e-01,8.745259791612625122e-02,2.166970819234848022e-02,-7.590349018573760986e-02,-4.102860763669013977e-02,8.546235412359237671e-02,-2.337053567171096802e-01,-1.017264127731323242e-01,9.524250775575637817e-02,-2.187261730432510376e-02,-1.166696771979331970e-01,-8.297837525606155396e-02,-5.393396690487861633e-02,-2.357014268636703491e-02,5.941770970821380615e-03,5.898008495569229126e-02,-4.296063911169767380e-03,1.864588707685470581e-01,-8.274509012699127197e-02,2.338831126689910889e-01,1.040126159787178040e-01,7.559684664011001587e-02,-5.347494035959243774e-02,-6.809790432453155518e-02,4.111277312040328979e-02,6.296311318874359131e-02,-8.143672603182494640e-04,-3.072287142276763916e-02,5.707382410764694214e-02,1.984471380710601807e-01,3.345128297805786133e-01,-6.919094175100326538e-02,-6.541641056537628174e-02,-4.654341936111450195e-02,-3.169906139373779297e-02,-1.750024110078811646e-01,2.598621696233749390e-02,-5.886766314506530762e-02,-2.100642025470733643e-02,1.859451532363891602e-01,6.487855911254882812e-01,2.807796895503997803e-01,-3.275050967931747437e-02,6.071979552507400513e-02,4.692109674215316772e-02,-8.808226883411407471e-02,5.180747061967849731e-02,2.098556607961654663e-02,4.079467803239822388e-02,-1.176339536905288696e-01,-5.993436649441719055e-02,-6.838306784629821777e-03,5.545527487993240356e-02,9.103519469499588013e-02,-3.957115113735198975e-03,2.082542330026626587e-02,-4.875529929995536804e-02,-8.682981878519058228e-02,-3.251834213733673096e-02,-6.642058491706848145e-03,-9.917079657316207886e-02,9.162150323390960693e-03,-1.375248283147811890e-02
-2.710416167974472046e-02,8.186643570661544800e-02,8.342771977186203003e-02,5.437389761209487915e-02,-3.593720495700836182e-02,-4.046581685543060303e-03,9.508100897073745728e-02,4.806350916624069214e-02,2.776271849870681763e-02,3.689373284578323364e-02,7.305818051099777222e-02,-1.913603395223617554e-02,7.049104664474725723e-03,-9.988613426685333252e-02,-8.716002106666564941e-02,8.199985325336456299e-02,4.306764155626296997e-02,2.863111160695552826e-02,-4.921239987015724182e-02,-5.983933806419372559e-04,4.012150317430496216e-02,2.090461105108261108e-01,2.328508049249649048e-01,-1.223606988787651062e-01,-1.037580594420433044e-01,-1.052963510155677795e-01,2.029900848865509033e-01,-1.161418035626411438e-01,4.555138349533081055e-01,1.575000584125518799e-02,-8.017008006572723389e-02,2.840990722179412842e-01,6.241796538233757019e-02,3.134388476610183716e-02,3.183855442330241203e-03,4.489690065383911133e-01,3.052192181348800659e-02,-2.843783609569072723e-02,1.677701622247695923e-02,2.480734884738922119e-02,-6.918235123157501221e-02,1.515219658613204956e-01,5.962594598531723022e-02,1.923180371522903442e-02,7.985026389360427856e-02,2.799811214208602905e-02,9.065679460763931274e-02,1.505091786384582520e-01,2.855161130428314209e-01,2.574420720338821411e-02,9.334381669759750366e-02,-1.904410123825073242e-02,9.878122061491012573e-02,-9.928178042173385620e-04,3.962586820125579834e-02,5.473615974187850952e-02,-6.347344070672988892e-02,-1.196541041135787964e-01,-2.103319019079208374e-02,1.004531979560852051e-03,5.701918154954910278e-02,-9.116917103528976440e-02,3.902167454361915588e-02,-8.703568950295448303e-03,-4.973610490560531616e-02,1.300959289073944092e-01,-1.080437377095222473e-01,-1.308505535125732422e-01,-1.932793855667114258e-02,7.050060480833053589e-02,-5.481594800949096680e-02,9.806979447603225708e-02,7.046117633581161499e-02,1.929366588592529297e-02,-1.067848876118659973e-01,-5.267122015357017517e-02,1.819972530938684940e-03,5.129174515604972839e-02,-3.194036707282066345e-02,-2.369538694620132446e-02,-4.584014415740966797e-02,-6.592224538326263428e-02,-2.420721948146820068e-02,-1.200754940509796143e-02,-1.733837276697158813e-02,-9.606577455997467041e-02,1.841028779745101929e-01,-8.554473519325256348e-03,1.836895942687988281e-02,-9.072586894035339355e-03,-1.555001735687255859e-02,6.737587600946426392e-02,-5.555469915270805359e-02,6.845810264348983765e-02,-3.516463190317153931e-02,-9.849673509597778320e-02,7.000655680894851685e-02,2.473084628582000732e-02,4.634281247854232788e-02,5.813930183649063110e-02
7.740301638841629028e-02,4.873242229223251343e-02,1.618067175149917603e-02,4.337369650602340698e-02,-9.890967607498168945e-02,8.768735080957412720e-02,3.749235719442367554e-02,-9.336612373590469360e-02,-2.859876304864883423e-02,-1.384624093770980835e-02,5.645068734884262085e-02,9.034175425767898560e-02,-8.255911618471145630e-02,-2.880380116403102875e-02,-1.734179556369781494e-01,-1.639161258935928345e-01,-1.682633161544799805e-01,-1.639900654554367065e-01,-1.786620914936065674e-01,5.642753094434738159e-02,2.154712378978729248e-02,-1.445996016263961792e-01,-1.386978775262832642e-01,-4.234874993562698364e-02,-2.726728096604347229e-02,1.459807157516479492e-01,7.395327091217041016e-02,1.102899014949798584e-02,2.771735787391662598e-01,-5.982125923037528992e-02,-5.982344225049018860e-02,-1.673373728990554810e-01,1.979520767927169800e-01,-1.530186384916305542e-01,-1.467476785182952881e-01,3.378227055072784424e-01,5.372620373964309692e-02,7.949776947498321533e-02,-9.798405319452285767e-02,5.723815411329269409e-02,-9.471217542886734009e-02,-6.259854882955551147e-02,-9.079247713088989258e-02,-1.585775166749954224e-01,-1.770221143960952759e-01,-5.325300619006156921e-02,9.654044359922409058e-02,-1.637400090694427490e-01,2.401935458183288574e-01,-6.626930832862854004e-02,9.480858594179153442e-02,7.258488982915878296e-02,9.410495311021804810e-02,5.285197123885154724e-02,-7.741575688123703003e-02,2.413131296634674072e-03,-1.667566746473312378e-01,-1.644833981990814209e-01,-1.235375553369522095e-02,-1.624049246311187744e-02,-5.601168796420097351e-02,-2.881658077239990234e-02,-2.643761970102787018e-02,1.956741064786911011e-01,-1.299877166748046875e-01,1.401808708906173706e-01,-1.734348237514495850e-01,7.848951965570449829e-02,-9.026171267032623291e-02,-6.818184256553649902e-02,7.267228513956069946e-02,-1.754701137542724609e-02,2.731144428253173828e-02,-1.200114190578460693e-02,2.571049518883228302e-02,-6.785855442285537720e-02,-5.372955650091171265e-02,4.555892050266265869e-01,-6.269217282533645630e-02,6.229839473962783813e-02,-5.260839685797691345e-02,4.566324502229690552e-02,-6.890761852264404297e-02,2.686210721731185913e-02,-1.281660795211791992e-02,2.217761427164077759e-02,3.075469136238098145e-01,-8.496210724115371704e-02,1.583842188119888306e-02,-8.715776354074478149e-02,7.078409940004348755e-02,-4.048388078808784485e-02,7.095391303300857544e-02,-8.441879600286483765e-02,1.922591775655746460e-02,1.734824478626251221e-02,1.577719300985336304e-02,-6.789080053567886353e-02,-1.121914386749267578e-02,-7.083937525749206543e-03
3.500143438577651978e-02,7.399409264326095581e-02,-7.936254888772964478e-02,7.707870751619338989e-02,5.780730396509170532e-02,-9.271116554737091064e-02,-5.221483856439590454e-02,-5.803581699728965759e-02,9.237202256917953491e-02,-7.211909443140029907e-02,6.947398185729980469e-03,-9.149558842182159424e-02,2.556791901588439941e-01,2.991635799407958984e-01,2.460702806711196899e-01,2.791388332843780518e-01,2.594909667968750000e-01,2.450766861438751221e-01,5.026718229055404663e-02,3.155607730150222778e-02,-8.238128572702407837e-02,2.670814692974090576e-01,2.367501892149448395e-02,1.716097891330718994e-01,-5.601163953542709351e-02,1.081396825611591339e-02,2.220817953348159790e-01,-1.222927868366241455e-01,-6.159070879220962524e-02,5.974822491407394409e-02,-5.858378484845161438e-02,2.521260082721710205e-01,1.728373914957046509e-01,5.695845466107130051e-03,1.298070605844259262e-02,-2.455217298120260239e-03,7.491188496351242065e-02,7.196447812020778656e-03,5.855330079793930054e-02,-7.018810510635375977e-02,1.869914680719375610e-02,1.056475192308425903e-01,-3.842691332101821899e-02,8.403079211711883545e-02,-1.341873109340667725e-01,-7.234428822994232178e-02,-9.778112173080444336e-02,3.565929085016250610e-02,-1.457875967025756836e-01,-6.600663810968399048e-02,-5.584639310836791992e-02,-6.376091390848159790e-02,1.744399964809417725e-02,-1.954040676355361938e-02,-4.086447879672050476e-02,3.145761489868164062e-01,1.251441240310668945e-01,-2.596697211265563965e-01,-5.447592958807945251e-02,9.324965626001358032e-02,-6.887553632259368896e-02,7.288996130228042603e-02,7.465011626482009888e-02,-2.404294908046722412e-02,-1.881371997296810150e-02,9.953450411558151245e-02,1.111743524670600891e-01,-2.583219110965728760e-01,-7.169385254383087158e-02,-2.300509065389633179e-02,2.578084915876388550e-02,9.396461397409439087e-02,-1.248690932989120483e-01,4.933426529169082642e-02,-7.583829760551452637e-02,3.353781253099441528e-02,4.409399926662445068e-01,4.329669848084449768e-02,-2.389617264270782471e-01,-5.557233095169067383e-02,-3.695300966501235962e-02,-1.687321811914443970e-02,5.946720391511917114e-02,1.524135470390319824e-03,1.833041757345199585e-02,8.763933926820755005e-02,1.920025423169136047e-02,-7.605895400047302246e-03,5.661025643348693848e-03,1.380886137485504150e-02,4.765390604734420776e-02,-3.195605427026748657e-02,4.290663450956344604e-02,9.664011746644973755e-02,3.814823180437088013e-02,-9.205192327499389648e-02,2.759075909852981567e-02,4.197246581315994263e-02,5.307137966156005859e-03,-7.805868983268737793e-03
9.989995509386062622e-02,3.711504489183425903e-02,-8.826261013746261597e-02,4.475973546504974365e-03,-4.103602096438407898e-02,6.119727343320846558e-02,8.816418796777725220e-02,1.083340495824813843e-02,8.074266463518142700e-02,-3.007104247808456421e-02,9.715550392866134644e-02,9.690106660127639771e-02,-1.571608781814575195e-01,-1.257202029228210449e-01,-1.789603233337402344e-01,6.802582740783691406e-02,-1.025940701365470886e-01,-2.546496391296386719e-01,2.558036893606185913e-02,-8.358098566532135010e-02,9.350306540727615356e-02,-2.014979869127273560e-01,3.207535296678543091e-02,-1.347268745303153992e-02,-5.522679165005683899e-02,-1.403778605163097382e-02,1.103323325514793396e-01,-1.439586877822875977e-01,3.674135506153106689e-01,4.496885091066360474e-02,-2.857233583927154541e-02,-2.231489121913909912e-01,2.084788829088211060e-01,-3.547827526926994324e-02,1.024215016514062881e-03,3.497433066368103027e-01,-7.749199867248535156e-03,-2.752401120960712433e-02,-1.700588315725326538e-02,7.589834183454513550e-02,6.699778884649276733e-02,-1.628570109605789185e-01,4.464641213417053223e-03,-1.316702812910079956e-01,2.284926325082778931e-01,-4.430764913558959961e-02,7.111383229494094849e-02,-2.540897428989410400e-01,2.936662137508392334e-01,7.614575326442718506e-03,6.023097783327102661e-02,-6.456194072961807251e-02,-7.251570373773574829e-02,4.315358400344848633e-02,-3.307147882878780365e-03,-2.089478820562362671e-01,-2.563678026199340820e-01,9.053556621074676514e-02,6.531041115522384644e-02,-3.393732011318206787e-03,-5.299692228436470032e-02,-4.709237813949584961e-02,3.867329284548759460e-02,1.095898151397705078e-01,-1.017537713050842285e-01,1.646883785724639893e-01,-2.618201375007629395e-01,1.954980492591857910e-01,3.000296652317047119e-03,-7.813094556331634521e-02,-9.298570454120635986e-02,-4.703998565673828125e-04,2.396462112665176392e-02,1.607219129800796509e-02,2.233910411596298218e-01,5.089614540338516235e-02,-2.544069290161132812e-01,4.635109305381774902e-01,1.675418019294738770e-01,-7.082059234380722046e-02,-4.089055210351943970e-02,7.991587370634078979e-02,8.629512041807174683e-02,-9.278916567564010620e-02,9.577734023332595825e-02,9.478361159563064575e-02,3.720001280307769775e-01,1.628696918487548828e-05,-7.359371334314346313e-02,-5.075370147824287415e-02,-2.948288619518280029e-02,-1.842902600765228271e-02,6.155341118574142456e-02,-1.824575662612915039e-02,-3.950581699609756470e-02,-3.712137043476104736e-02,4.387647658586502075e-02,3.951948136091232300e-02,-6.115123629570007324e-03,1.839320361614227295e-02
5.432198196649551392e-02,8.549017459154129028e-02,-6.281387805938720703e-02,-5.452698469161987305e-02,-9.635434299707412720e-02,-5.558403953909873962e-02,-6.194535642862319946e-02,-8.515504747629165649e-02,-1.714766025543212891e-02,-8.594816923141479492e-02,-4.549291357398033142e-02,8.357763290405273438e-03,1.759972423315048218e-01,2.501630596816539764e-02,-8.425120264291763306e-02,-1.415705401450395584e-02,-2.709257788956165314e-02,-2.868551611900329590e-01,4.591494426131248474e-02,-9.473086893558502197e-02,9.718450158834457397e-02,3.640193864703178406e-02,1.734420508146286011e-01,-6.538989394903182983e-02,-7.637699693441390991e-02,-4.399347584694623947e-03,9.784036129713058472e-02,-1.854721456766128540e-01,3.732357323169708252e-01,3.855824470520019531e-03,5.623794347047805786e-02,1.567709594964981079e-01,3.360229134559631348e-01,1.120038330554962158e-02,3.605011478066444397e-02,2.987633049488067627e-01,-1.920957863330841064e-02,-6.664737313985824585e-02,-5.980134010314941406e-02,4.380010813474655151e-02,-3.750798851251602173e-02,2.739868126809597015e-02,-9.217761456966400146e-03,-5.134581774473190308e-02,-5.699851084500551224e-03,1.954809576272964478e-02,-8.662783354520797729e-02,1.161663420498371124e-02,3.027565479278564453e-01,-1.994001865386962891e-02,-8.089995384216308594e-02,-8.731738477945327759e-02,-8.714926242828369141e-02,-6.750629842281341553e-02,3.572100028395652771e-02,-1.185197606682777405e-01,-1.862156689167022705e-01,-2.553603984415531158e-02,-6.669031083583831787e-02,6.133335083723068237e-02,-1.829968392848968506e-02,7.968955487012863159e-02,-1.084459125995635986e-01,-5.217161402106285095e-02,-1.219126656651496887e-01,1.842241436243057251e-01,-2.483743876218795776e-01,2.989514358341693878e-02,-5.520860105752944946e-02,-6.055878475308418274e-02,-9.730833768844604492e-02,-1.322455704212188721e-02,-6.349191069602966309e-02,-9.482484310865402222e-02,-4.405213519930839539e-02,5.737841129302978516e-03,9.839097410440444946e-02,4.043794572353363037e-01,-2.810667753219604492e-01,-6.331036984920501709e-02,-7.835389673709869385e-02,6.109768897294998169e-02,-5.988569185137748718e-02,-3.843839094042778015e-02,7.324043661355972290e-02,1.968862116336822510e-02,2.073297351598739624e-01,-1.355004310607910156e-02,6.404659897089004517e-02,3.245561569929122925e-02,8.172765374183654785e-03,-9.923086315393447876e-02,8.571328967809677124e-02,6.970814615488052368e-02,-8.131147921085357666e-02,5.181298404932022095e-02,8.513651043176651001e-02,-6.062669679522514343e-02,3.251845389604568481e-02,6.410720199346542358e-02
3.286034613847732544e-02,-9.937112778425216675e-02,6.393022090196609497e-02,1.996026933193206787e-02,-6.962633132934570312e-02,5.510535091161727905e-02,-4.700976610183715820e-02,-1.335266977548599243e-02,4.413665086030960083e-02,8.420585840940475464e-02,5.122727900743484497e-02,-7.692477852106094360e-02,-2.247349917888641357e-02,1.612292379140853882e-01,8.767321705818176270e-02,-1.665775477886199951e-02,2.941976189613342285e-01,-1.098690629005432129e-01,-8.406590670347213745e-02,1.951470971107482910e-03,-8.478756994009017944e-02,2.028104364871978760e-01,-1.718040788546204567e-03,1.145134493708610535e-02,2.158153206110000610e-01,-9.414882957935333252e-02,-8.788952976465225220e-02,3.430053889751434326e-01,-8.853561431169509888e-02,-2.504930645227432251e-02,3.834953159093856812e-02,1.741964928805828094e-02,-4.491059109568595886e-03,1.774285286664962769e-01,-8.491493761539459229e-02,3.896491229534149170e-02,-3.265698999166488647e-02,-7.806454598903656006e-02,-9.374077618122100830e-02,1.675101369619369507e-02,-6.843844801187515259e-02,1.072572451084852219e-02,-9.285940229892730713e-02,8.855862915515899658e-02,-1.001262217760086060e-01,-6.633393466472625732e-02,-8.303074538707733154e-02,-8.458872139453887939e-02,4.083576202392578125e-01,1.846477389335632324e-03,-5.680271610617637634e-02,-8.882524818181991577e-02,-9.708628803491592407e-02,3.480381146073341370e-02,1.231280062347650528e-02,-8.479565382003784180e-02,-8.070831745862960815e-02,-8.296659588813781738e-02,9.011592715978622437e-02,-8.988296240568161011e-02,9.720742702484130859e-03,2.806565910577774048e-02,-1.531622651964426041e-02,1.079836208373308182e-02,-8.285397291183471680e-02,-5.007020756602287292e-02,-8.306314051151275635e-02,-6.549303233623504639e-02,3.837788850069046021e-02,-9.061439335346221924e-02,-2.791303396224975586e-02,-6.906706094741821289e-02,-2.928999019786715508e-03,6.438512355089187622e-02,-9.110116213560104370e-02,-4.254783317446708679e-02,4.701280295848846436e-01,4.857831895351409912e-01,-4.192066192626953125e-02,-6.497906148433685303e-02,5.614643543958663940e-02,1.559291034936904907e-02,7.835897058248519897e-02,-2.617812156677246094e-02,-3.920739889144897461e-02,-5.698487907648086548e-02,1.622680425643920898e-01,-7.681254297494888306e-02,5.336261540651321411e-02,3.934979438781738281e-03,-8.884693682193756104e-02,7.556272298097610474e-02,-3.913562372326850891e-02,3.797882050275802612e-02,1.192463934421539307e-02,-5.457335710525512695e-02,-6.784744560718536377e-02,6.866120547056198120e-02,-8.392328023910522461e-02,8.532425016164779663e-02
3.484927862882614136e-02,-4.000301286578178406e-02,6.628351658582687378e-02,7.705770432949066162e-03,-9.072146564722061157e-02,-7.881148904561996460e-02,5.111313611268997192e-02,6.791856139898300171e-02,-8.227012306451797485e-02,9.643865376710891724e-02,-7.610054314136505127e-02,5.801063030958175659e-02,4.190699383616447449e-02,7.611774839460849762e-03,-2.192880362272262573e-01,-6.547091156244277954e-02,-1.685087084770202637e-01,-1.868599504232406616e-01,-2.642250955104827881e-01,-4.838873073458671570e-02,3.341323882341384888e-02,-2.641872167587280273e-01,8.146928995847702026e-02,-4.009376466274261475e-02,1.049052327871322632e-01,-7.053776085376739502e-02,-7.886634021997451782e-02,-1.526307761669158936e-01,-1.564751863479614258e-01,3.081408888101577759e-02,7.999507337808609009e-02,-5.684510990977287292e-02,8.957873284816741943e-02,3.394785523414611816e-02,-1.358562335371971130e-02,-1.295991837978363037e-01,-6.879916042089462280e-02,-1.956712752580642700e-01,-1.510515064001083374e-02,9.941587597131729126e-02,-7.526741176843643188e-02,-5.528122931718826294e-02,-5.404677614569664001e-02,-1.331118196249008179e-01,-2.760889753699302673e-02,-1.192720979452133179e-02,-4.566065222024917603e-02,-1.111369654536247253e-01,-6.593186408281326294e-02,-9.378159046173095703e-02,-2.704665809869766235e-02,3.475859761238098145e-03,1.281842589378356934e-03,3.133335337042808533e-02,1.528039276599884033e-01,-1.673444062471389771e-01,-4.268139600753784180e-02,1.579833775758743286e-01,-3.547348827123641968e-02,-1.234513521194458008e-02,-6.937362253665924072e-02,2.408815920352935791e-02,-6.416606158018112183e-02,-3.884525224566459656e-02,6.183647084981203079e-03,-8.788763731718063354e-02,2.124187946319580078e-01,2.740346193313598633e-01,7.861591130495071411e-02,-3.382401168346405029e-02,6.538546830415725708e-02,-7.599806785583496094e-02,-9.522172063589096069e-02,-5.266174301505088806e-02,-1.780691556632518768e-02,6.802832335233688354e-02,6.287018954753875732e-02,6.021018028259277344e-01,4.086708724498748779e-01,8.442636579275131226e-02,-8.151914924383163452e-02,1.934085786342620850e-02,-5.691080167889595032e-02,-2.853604406118392944e-02,9.043795615434646606e-02,2.650223672389984131e-03,-1.246264874935150146e-01,9.637545794248580933e-02,7.064140588045120239e-02,-1.190032809972763062e-02,3.865800052881240845e-02,5.553776770830154419e-02,-6.317007541656494141e-02,-5.667475610971450806e-02,-7.641956955194473267e-02,4.388237744569778442e-02,-2.149720489978790283e-02,-7.524697482585906982e-02,5.487442761659622192e-02,5.800351500511169434e-03
2.972716838121414185e-02,5.731723457574844360e-02,-2.613827586174011230e-03,-2.830348908901214600e-02,7.970058172941207886e-02,7.272297888994216919e-02,5.514467507600784302e-02,-4.317771270871162415e-02,3.390683978796005249e-02,1.246809959411621094e-02,1.404301077127456665e-02,8.991822600364685059e-03,-8.276934176683425903e-02,-1.123697534203529358e-01,-2.060688138008117676e-01,-1.397166252136230469e-01,-2.869288325309753418e-01,-2.876981198787689209e-01,-1.008431762456893921e-01,2.392951399087905884e-02,-8.220539242029190063e-02,3.069785237312316895e-01,1.776024699211120605e-01,-7.380055636167526245e-02,-9.399916976690292358e-02,-7.497742027044296265e-02,-6.070217490196228027e-02,-1.132904738187789917e-01,-2.784773707389831543e-01,2.262295782566070557e-02,3.292030841112136841e-02,1.387120783329010010e-01,4.372912272810935974e-02,6.430730968713760376e-02,-1.414511948823928833e-01,-2.709713280200958252e-01,-7.702348381280899048e-02,5.111215263605117798e-02,3.205949813127517700e-02,-2.729414403438568115e-02,3.906468302011489868e-02,1.297002434730529785e-01,-3.511868417263031006e-02,1.058035567402839661e-01,-2.472571581602096558e-01,-2.435021102428436279e-02,6.780225783586502075e-02,1.679404675960540771e-01,-2.850722372531890869e-01,5.533666163682937622e-02,-7.087886333465576172e-02,2.449117600917816162e-03,4.035342484712600708e-02,-3.763324022293090820e-02,-4.188854247331619263e-03,-1.502478122711181641e-01,-9.246527403593063354e-02,1.003735363483428955e-01,7.017774134874343872e-02,9.779598563909530640e-02,2.803429961204528809e-04,5.880377441644668579e-02,-6.582389771938323975e-02,7.015438377857208252e-02,-5.462582409381866455e-02,3.629276156425476074e-02,2.284164279699325562e-01,7.444652169942855835e-02,-1.003489643335342407e-02,-2.262127399444580078e-02,8.841503411531448364e-02,-2.246513217687606812e-02,-1.081277057528495789e-01,-9.045919030904769897e-02,-6.396456062793731689e-02,3.004863858222961426e-03,4.569894969463348389e-01,4.068322181701660156e-01,-2.819630801677703857e-01,1.378858089447021484e-02,-3.199811279773712158e-02,8.491741865873336792e-02,9.061678498983383179e-02,1.926340907812118530e-02,-6.235250458121299744e-02,-6.958178430795669556e-02,-4.092617705464363098e-02,-5.240044742822647095e-02,9.985841065645217896e-02,1.877407729625701904e-02,4.855061322450637817e-02,8.311658352613449097e-02,8.361820131540298462e-02,8.352958410978317261e-02,1.346377283334732056e-02,8.044559508562088013e-02,9.229604154825210571e-02,-8.310745656490325928e-02,-7.496595382690429688e-03,1.558508723974227905e-02
7.740475982427597046e-02,-4.411935806274414062e-04,-4.066461324691772461e-02,3.205239772796630859e-03,2.741456776857376099e-02,-9.947522729635238647e-02,-1.609741151332855225e-02,-5.479380115866661072e-02,-6.614041328430175781e-02,2.248064428567886353e-02,4.879452288150787354e-03,-3.160126507282257080e-02,5.801078304648399353e-02,-9.416966140270233154e-02,-1.319147646427154541e-01,-4.312703758478164673e-02,4.655757453292608261e-03,1.471228897571563721e-01,-1.123818829655647278e-01,-2.622725814580917358e-02,1.378411054611206055e-02,2.333579659461975098e-01,-1.149723976850509644e-01,1.286612264811992645e-02,-1.693511754274368286e-01,1.163215190172195435e-01,2.668619751930236816e-01,4.031553864479064941e-02,-7.434020750224590302e-03,-4.256060346961021423e-02,6.383847445249557495e-02,8.318092674016952515e-02,-1.495506316423416138e-01,-9.488113224506378174e-02,9.975617378950119019e-02,-3.028548136353492737e-02,-2.227415144443511963e-02,6.079714745283126831e-02,8.708617836236953735e-02,-8.053572475910186768e-02,-6.547985970973968506e-02,-9.533696621656417847e-02,2.691710740327835083e-02,9.215935319662094116e-02,-2.264766991138458252e-01,6.277840584516525269e-02,-9.226395189762115479e-02,3.744504749774932861e-01,1.580152660608291626e-01,5.403270572423934937e-02,-1.553148031234741211e-02,1.498397439718246460e-02,-4.862562566995620728e-02,-5.084547679871320724e-03,-1.701395362615585327e-01,1.511797308921813965e-01,2.527109384536743164e-01,-3.483413159847259521e-01,-7.761464267969131470e-02,6.463267654180526733e-02,3.465289622545242310e-02,-2.557958662509918213e-02,-3.633442521095275879e-02,-2.032403647899627686e-01,1.159668620675802231e-02,-7.438971102237701416e-02,2.575766742229461670e-01,-3.444327116012573242e-01,2.636097371578216553e-03,-9.908455610275268555e-02,3.784060478210449219e-03,3.715998679399490356e-02,-9.596256911754608154e-02,-6.673404574394226074e-02,-1.999963670969009399e-01,-2.303458750247955322e-03,5.002670288085937500e-01,3.585622608661651611e-01,4.396239295601844788e-03,8.550047129392623901e-02,5.787656456232070923e-02,-4.056732729077339172e-02,7.628870755434036255e-02,-2.578623592853546143e-02,9.456951171159744263e-02,-5.545923858880996704e-02,-3.065775036811828613e-01,1.308826357126235962e-02,2.584912627935409546e-02,-3.886803612112998962e-02,-5.464869737625122070e-02,9.333118051290512085e-02,9.720209985971450806e-02,2.781048417091369629e-03,-8.602123707532882690e-02,2.243332564830780029e-02,2.977993339300155640e-02,8.170277625322341919e-02,6.882689893245697021e-03,-9.364893287420272827e-02
-5.281720310449600220e-02,-9.849313646554946899e-02,9.727523475885391235e-02,-6.841746717691421509e-02,1.936026662588119507e-02,3.983628004789352417e-02,8.917040377855300903e-02,-8.709768205881118774e-02,8.111887425184249878e-02,-8.223142474889755249e-02,-7.764740288257598877e-02,2.474121749401092529e-02,1.088280975818634033e-01,1.623079180717468262e-01,1.199411526322364807e-01,-9.439783170819282532e-03,1.145206093788146973e-01,-1.519843637943267822e-01,-1.652975827455520630e-01,-2.283495664596557617e-02,-4.625893756747245789e-02,4.467869549989700317e-02,1.295564025640487671e-01,4.840520024299621582e-02,2.000850141048431396e-01,1.078542247414588928e-01,-1.640887558460235596e-01,9.140833467245101929e-02,2.308484166860580444e-01,1.673201471567153931e-02,9.870196133852005005e-02,1.866092830896377563e-01,2.230066955089569092e-01,3.519360721111297607e-02,3.850466758012771606e-02,6.204213201999664307e-02,3.555349260568618774e-02,3.282398283481597900e-01,2.812359482049942017e-02,-6.670449674129486084e-02,9.294398874044418335e-02,7.999670505523681641e-02,-6.014582142233848572e-02,3.404990434646606445e-01,1.342597305774688721e-01,5.776699632406234741e-02,7.493587583303451538e-02,1.540237218141555786e-01,7.403022795915603638e-02,-2.042393386363983154e-02,-4.878394678235054016e-02,6.518740206956863403e-02,5.715408176183700562e-02,6.277545355260372162e-03,3.319349884986877441e-02,7.205643504858016968e-02,2.737468108534812927e-02,6.219406798481941223e-02,-8.195088058710098267e-02,-2.791307866573333740e-02,-7.575179636478424072e-02,1.678405702114105225e-02,2.921116910874843597e-02,4.305898770689964294e-02,2.884937264025211334e-02,3.831919282674789429e-02,-1.561027169227600098e-01,-1.312166005373001099e-01,-6.239681318402290344e-02,6.486538797616958618e-02,-8.134560286998748779e-02,8.844233304262161255e-02,1.845005154609680176e-01,8.011073619127273560e-02,4.450903832912445068e-02,3.489806503057479858e-02,-1.019998788833618164e-01,-1.478999853134155273e-01,-1.582078039646148682e-01,-9.864231199026107788e-02,-8.639855682849884033e-02,-2.973415702581405640e-02,-8.002358675003051758e-02,-5.771592259407043457e-03,-4.738375544548034668e-03,-2.221451699733734131e-02,1.122850403189659119e-01,4.373926669359207153e-02,9.381315857172012329e-02,3.652147203683853149e-02,8.725578337907791138e-02,9.034899622201919556e-02,-6.729677319526672363e-03,-7.135411351919174194e-02,-9.076520800590515137e-03,-5.068692192435264587e-02,2.320277690887451172e-02,-5.174447223544120789e-02,6.974654644727706909e-02,9.333240240812301636e-02
-9.265840053558349609e-03,4.370302706956863403e-02,-4.462167248129844666e-02,2.789873629808425903e-02,7.425463944673538208e-02,-3.023759275674819946e-02,-2.128630876541137695e-02,1.616958528757095337e-02,-1.614157110452651978e-02,-8.719553053379058838e-02,-9.992780536413192749e-02,7.215477526187896729e-03,-5.746193230152130127e-02,-1.662206500768661499e-01,-9.746167063713073730e-02,-2.195941656827926636e-02,-1.102285534143447876e-01,-7.155211642384529114e-03,-8.626720868051052094e-03,9.817581623792648315e-02,-5.928076803684234619e-03,-6.860458105802536011e-02,1.468837708234786987e-01,1.378672569990158081e-01,8.422785252332687378e-02,7.254496216773986816e-02,6.973605602979660034e-02,5.468645691871643066e-02,-5.365544930100440979e-02,-6.416544318199157715e-02,-9.191302210092544556e-02,-7.066765427589416504e-02,1.976783722639083862e-01,2.847008965909481049e-02,1.359523534774780273e-01,-8.591513149440288544e-03,1.667364686727523804e-02,-1.156922727823257446e-01,6.172401458024978638e-02,3.878694027662277222e-02,-4.577487707138061523e-04,4.011196643114089966e-02,-2.138221263885498047e-02,-1.168359071016311646e-01,-6.863044947385787964e-02,2.619322389364242554e-02,-1.727439463138580322e-02,-1.553799211978912354e-01,-6.506074219942092896e-02,6.696390360593795776e-02,-7.488936185836791992e-02,3.154928237199783325e-02,-7.719691842794418335e-02,-5.697072669863700867e-02,9.644225239753723145e-02,-7.655572146177291870e-02,-1.752495914697647095e-01,4.762948304414749146e-02,-4.234721884131431580e-02,2.969127148389816284e-02,-7.457654178142547607e-02,-2.786426246166229248e-02,3.125522658228874207e-02,9.157145768404006958e-02,-6.281645968556404114e-03,1.010304838418960571e-01,-4.940414428710937500e-02,8.137842640280723572e-03,6.241876631975173950e-02,-1.100311428308486938e-02,-6.572090089321136475e-03,4.099158197641372681e-02,-1.434644013643264771e-01,-2.223529666662216187e-02,-2.543959021568298340e-02,5.002374202013015747e-02,2.231803685426712036e-01,7.795782685279846191e-01,-2.145090103149414062e-01,-9.079257398843765259e-02,4.159890860319137573e-02,-6.008310243487358093e-02,3.890801221132278442e-02,8.780448883771896362e-02,9.585096687078475952e-02,-9.622798115015029907e-02,1.926354467868804932e-01,6.348245590925216675e-02,9.313159435987472534e-02,5.967589467763900757e-02,-1.117837429046630859e-02,3.538572043180465698e-02,4.245117306709289551e-03,-8.922374248504638672e-02,7.128459960222244263e-02,-8.921360224485397339e-02,2.887152880430221558e-02,4.019192606210708618e-02,7.556772977113723755e-02,7.484955340623855591e-02
2.914667874574661255e-02,-3.529918193817138672e-02,3.794499486684799194e-02,5.409523099660873413e-02,-9.936824440956115723e-03,1.468996703624725342e-02,-1.994436979293823242e-02,9.421194344758987427e-02,-4.185003042221069336e-02,2.075914293527603149e-02,-9.910818189382553101e-02,-3.388293832540512085e-02,-1.281497031450271606e-01,-2.950961887836456299e-01,-3.866431117057800293e-01,-3.797627091407775879e-01,-3.628538250923156738e-01,-2.177153974771499634e-01,-3.291230499744415283e-01,5.746176093816757202e-02,1.242373138666152954e-02,-3.138019442558288574e-01,3.104887157678604126e-02,-4.999036714434623718e-02,2.697746269404888153e-02,-1.384192556142807007e-01,-1.969254016876220703e-01,-1.805170923471450806e-01,-2.330279201269149780e-01,-7.355771958827972412e-02,7.893835753202438354e-02,-1.718399077653884888e-01,2.206062898039817810e-02,-1.689233817160129547e-02,1.120787765830755234e-02,-6.602089107036590576e-02,-5.198661237955093384e-02,-1.869028210639953613e-01,-8.848083019256591797e-02,-2.590546756982803345e-02,-6.592929363250732422e-03,5.100311338901519775e-02,8.322615176439285278e-02,-1.291164159774780273e-01,1.012899354100227356e-01,2.819531410932540894e-02,4.996151477098464966e-02,7.184587884694337845e-03,-2.130258232355117798e-01,-8.012630790472030640e-02,3.337474912405014038e-02,4.897695034742355347e-02,6.887186318635940552e-02,-5.945859104394912720e-02,4.833660554140806198e-03,-1.787208616733551025e-01,-1.000328063964843750e-01,2.885462641716003418e-01,8.684449642896652222e-02,5.137380212545394897e-02,7.429733872413635254e-03,4.611637443304061890e-02,1.001914963126182556e-01,-7.435447722673416138e-02,5.402849987149238586e-02,8.724740706384181976e-03,4.477720558643341064e-01,3.422753810882568359e-01,3.478666394948959351e-02,-7.485892623662948608e-02,-2.546086907386779785e-03,-7.879900932312011719e-02,-1.139185875654220581e-01,-7.699210941791534424e-02,7.323719561100006104e-02,-7.864750921726226807e-02,3.005821406841278076e-01,5.462486147880554199e-01,3.389973044395446777e-01,-1.905264705419540405e-02,-6.460031867027282715e-02,-5.604206398129463196e-02,3.714323043823242188e-03,7.504554837942123413e-02,6.510949879884719849e-02,8.591192215681076050e-02,-4.149238392710685730e-02,9.234351664781570435e-02,-3.082257509231567383e-02,-5.202429369091987610e-02,-3.793291002511978149e-02,-7.928645610809326172e-02,9.391612559556961060e-02,-6.998886913061141968e-02,-1.799149811267852783e-02,-8.340342342853546143e-02,-1.903512328863143921e-02,2.881192415952682495e-02,4.781203716993331909e-02,-8.671610802412033081e-02
2.645514160394668579e-02,-1.144804805517196655e-02,-5.582787096500396729e-03,7.000670582056045532e-02,7.066328078508377075e-02,9.086271375417709351e-02,9.629217535257339478e-02,5.055908113718032837e-02,-6.042793020606040955e-02,2.360062301158905029e-02,2.615005522966384888e-02,-8.810932934284210205e-02,-2.891198992729187012e-01,-1.489473134279251099e-01,-3.706131577491760254e-01,-3.758911192417144775e-01,-3.442731797695159912e-01,-2.913810908794403076e-01,-2.759963274002075195e-01,1.393334567546844482e-02,2.889498323202133179e-02,6.742569059133529663e-02,-1.445637047290802002e-01,-2.808423638343811035e-01,-1.970315538346767426e-02,-3.772205710411071777e-01,-3.166630864143371582e-01,-1.388533711433410645e-01,-3.099299669265747070e-01,4.997806996107101440e-02,3.834471851587295532e-02,1.623134613037109375e-01,-2.997160851955413818e-01,-1.274568680673837662e-02,-9.661237709224224091e-05,-2.309649139642715454e-01,2.642182260751724243e-02,1.897419691085815430e-01,7.326401025056838989e-02,4.923983663320541382e-02,-8.157566189765930176e-03,7.310929894447326660e-02,-1.378341764211654663e-02,5.551224946975708008e-02,5.917743965983390808e-02,-7.645450532436370850e-03,1.256346702575683594e-02,3.279539048671722412e-01,-2.051598727703094482e-01,-5.479136854410171509e-02,-6.229117140173912048e-02,-6.188413128256797791e-02,-5.114239454269409180e-02,1.845589838922023773e-02,-3.092023916542530060e-02,-2.173633128404617310e-01,-1.331983208656311035e-01,3.595246374607086182e-01,-5.195850133895874023e-02,2.156647294759750366e-02,4.263875633478164673e-02,-2.829679101705551147e-02,6.268016528338193893e-03,-2.563944086432456970e-02,-1.591555960476398468e-02,-1.326078325510025024e-01,1.419510245323181152e-01,4.429895877838134766e-01,-5.241365358233451843e-02,1.225800812244415283e-02,-3.750460222363471985e-02,-8.636207878589630127e-02,4.110575094819068909e-02,-2.843699604272842407e-02,2.802087664604187012e-01,6.499468535184860229e-02,2.213451266288757324e-01,-9.364768862724304199e-02,3.032507002353668213e-01,-6.926079839468002319e-02,6.973894685506820679e-02,2.538278698921203613e-03,-6.488451361656188965e-02,7.454956322908401489e-02,6.311183422803878784e-02,4.938467592000961304e-02,2.053485950455069542e-03,-7.888070493936538696e-02,-2.913490682840347290e-02,-2.105747163295745850e-02,-6.967906653881072998e-02,-1.303839683532714844e-02,8.286558091640472412e-03,-1.984710991382598877e-02,7.558318227529525757e-02,6.485996395349502563e-02,4.821302741765975952e-02,9.617760032415390015e-02,-1.182220876216888428e-03,-9.481858462095260620e-02
-1.640887558460235596e-02,8.822134882211685181e-02,-1.969918608665466309e-03,-5.440623685717582703e-02,7.859157770872116089e-02,-9.243465960025787354e-02,-5.020829662680625916e-02,-8.009598404169082642e-02,7.377714663743972778e-02,-9.600024670362472534e-02,-8.434088528156280518e-02,1.527080684900283813e-02,2.403729967772960663e-02,-6.864334642887115479e-02,-2.327236346900463104e-02,4.078484326601028442e-02,4.564943537116050720e-02,7.305642217397689819e-02,-5.225528031587600708e-02,3.915382176637649536e-02,4.175203293561935425e-02,1.506400406360626221e-01,-1.794078201055526733e-01,-2.732451818883419037e-02,-1.331753879785537720e-01,-2.480091750621795654e-01,-3.375872671604156494e-01,-1.713411211967468262e-01,-3.234877288341522217e-01,4.013947397470474243e-02,-2.005559206008911133e-02,2.304071038961410522e-01,-2.722595334053039551e-01,-1.135180369019508362e-01,-8.651240915060043335e-02,-2.106582820415496826e-01,9.302832931280136108e-02,2.051126807928085327e-01,-5.096118524670600891e-02,2.614902704954147339e-02,4.986692219972610474e-02,-2.015113271772861481e-02,1.326754689216613770e-03,2.409805357456207275e-02,-1.842373609542846680e-01,-5.796543508768081665e-02,-5.637043714523315430e-02,2.072570323944091797e-01,-2.179701328277587891e-01,-2.394795417785644531e-03,-2.769426256418228149e-02,6.482420116662979126e-02,-1.589296013116836548e-02,-8.877088874578475952e-02,-1.251347512006759644e-01,4.185397177934646606e-02,9.812276065349578857e-02,1.660669147968292236e-01,-9.458074718713760376e-02,-1.340842247009277344e-02,-2.794697880744934082e-03,6.743163615465164185e-02,-7.336326688528060913e-02,-7.998172193765640259e-02,-1.186748966574668884e-02,-2.014084756374359131e-01,1.782708466053009033e-01,1.109630689024925232e-01,-4.168652370572090149e-02,9.778789430856704712e-02,3.286858648061752319e-02,5.359756201505661011e-02,1.821085363626480103e-01,8.947191387414932251e-02,1.555492579936981201e-01,6.829174607992172241e-02,-2.200286835432052612e-02,-3.363640606403350830e-01,1.797966063022613525e-01,4.165878146886825562e-02,4.673945158720016479e-02,-7.325123250484466553e-02,2.324029803276062012e-03,9.344858676195144653e-02,1.082202047109603882e-02,-4.726735502481460571e-02,-2.406631112098693848e-01,6.748057156801223755e-02,-4.699087142944335938e-02,7.837451249361038208e-02,-5.996048450469970703e-02,3.798190504312515259e-02,-7.557430118322372437e-02,6.473471969366073608e-02,-9.071528166532516479e-02,4.204607754945755005e-02,-2.238234132528305054e-02,-9.526838362216949463e-02,1.022845506668090820e-02,4.436083883047103882e-02
-3.620013594627380371e-03,7.020138204097747803e-03,4.373187571763992310e-02,6.475605815649032593e-02,7.062274962663650513e-02,8.439317345619201660e-03,6.222709268331527710e-02,3.823205828666687012e-03,1.804871857166290283e-02,1.333653926849365234e-05,2.976929396390914917e-02,-6.234866380691528320e-02,7.478775829076766968e-02,-1.197247654199600220e-01,-1.335095334798097610e-02,-7.431523501873016357e-02,-2.411433458328247070e-01,-4.176409542560577393e-02,-1.700412482023239136e-01,6.543792784214019775e-03,4.035004228353500366e-02,-1.946128457784652710e-01,-3.195219859480857849e-02,-8.410605043172836304e-02,-1.109928041696548462e-01,-2.159299552440643311e-01,-1.840837001800537109e-01,-2.753731012344360352e-01,-2.744686603546142578e-01,6.917332857847213745e-02,8.604682236909866333e-02,-4.636377096176147461e-03,-8.171350508928298950e-02,-3.180565685033798218e-02,-1.394249349832534790e-01,-2.710370421409606934e-01,7.805446535348892212e-02,-2.719151079654693604e-01,-8.795835077762603760e-03,6.756962090730667114e-02,-3.186559677124023438e-02,4.074715077877044678e-02,5.108451098203659058e-02,-2.354946285486221313e-01,-2.029044479131698608e-01,4.952264577150344849e-02,-1.716510206460952759e-02,2.522316761314868927e-02,-1.718178540468215942e-01,-4.578217864036560059e-03,1.921101659536361694e-02,-5.682073533535003662e-03,-8.001265674829483032e-02,-8.484505861997604370e-02,-7.935886271297931671e-03,-8.855527639389038086e-02,-1.471632868051528931e-01,7.160244882106781006e-02,3.826662898063659668e-03,-3.092436492443084717e-02,-8.579397201538085938e-02,5.773863941431045532e-02,-7.159309089183807373e-02,-7.497683167457580566e-02,1.262554060667753220e-02,-9.948395192623138428e-02,2.551699876785278320e-01,2.629212141036987305e-01,6.488477438688278198e-02,-1.051917672157287598e-03,-9.764356911182403564e-02,3.598337620496749878e-02,-6.983529776334762573e-02,-2.411557734012603760e-02,-7.242149114608764648e-02,3.798788040876388550e-02,2.072650343179702759e-01,3.926436901092529297e-01,2.537738680839538574e-01,7.676170021295547485e-02,4.619619995355606079e-02,9.099606424570083618e-02,1.432941108942031860e-02,-1.581971347332000732e-02,3.033962100744247437e-02,-3.154049068689346313e-02,-1.842180043458938599e-01,-5.307006835937500000e-02,-3.858789801597595215e-03,-7.417069375514984131e-02,1.949185132980346680e-02,-3.177313506603240967e-02,1.820801198482513428e-02,4.837212711572647095e-02,7.095741480588912964e-02,-6.032359600067138672e-02,7.964923977851867676e-03,-8.520439267158508301e-03,8.292696624994277954e-02,-2.408236265182495117e-02
-9.203945845365524292e-02,-1.509702205657958984e-02,-8.399671316146850586e-02,-5.054600164294242859e-02,8.082903176546096802e-02,-9.477571398019790649e-02,-8.583500236272811890e-02,9.414248913526535034e-02,1.113772392272949219e-02,-3.735341876745223999e-02,-2.382598817348480225e-02,-4.587418958544731140e-02,-4.375499486923217773e-02,-1.777528226375579834e-02,-7.339049875736236572e-02,3.956910222768783569e-02,5.890221148729324341e-02,-7.418638467788696289e-02,-2.075959742069244385e-02,3.472258895635604858e-02,8.432597666978836060e-02,-8.959022909402847290e-02,7.618710398674011230e-02,5.804193764925003052e-02,6.320822983980178833e-02,-7.822074741125106812e-02,-7.674292474985122681e-02,7.214259356260299683e-02,-5.477451160550117493e-02,3.259681910276412964e-02,9.572781622409820557e-03,3.046534210443496704e-02,-9.099630266427993774e-02,-1.481093466281890869e-02,-7.902966439723968506e-02,-3.949395567178726196e-02,8.408782631158828735e-02,-9.601116180419921875e-04,5.864048749208450317e-02,4.153615981340408325e-02,7.261360436677932739e-02,-1.488516479730606079e-02,-4.579469189047813416e-02,4.080361872911453247e-02,9.042359143495559692e-02,-9.847023338079452515e-02,-7.997378706932067871e-04,-9.114187210798263550e-02,2.592545002698898315e-02,6.048069149255752563e-02,8.971274644136428833e-02,6.487565487623214722e-02,1.203632354736328125e-02,-6.967261433601379395e-03,6.146717816591262817e-02,3.679610043764114380e-02,-4.742784425616264343e-02,-9.078886359930038452e-02,-8.548858016729354858e-02,-1.026169210672378540e-02,-2.593859285116195679e-02,-6.757959723472595215e-03,1.205162703990936279e-02,-1.968646049499511719e-02,-7.118412107229232788e-02,-9.353503584861755371e-03,-6.294596195220947266e-02,-4.033727571368217468e-02,-3.456549346446990967e-02,-6.403028964996337891e-02,8.214391022920608521e-02,1.193767786026000977e-02,2.206148207187652588e-02,7.098633795976638794e-02,2.732286602258682251e-02,7.479749619960784912e-03,-6.882146000862121582e-03,9.148118644952774048e-02,-2.074811607599258423e-02,9.826976805925369263e-02,2.488251030445098877e-02,6.411571055650711060e-02,-5.382217094302177429e-02,-8.093181997537612915e-02,7.801115512847900391e-03,-1.211389899253845215e-04,3.883863240480422974e-02,6.371860951185226440e-02,-2.484311163425445557e-02,8.026505261659622192e-02,7.959402352571487427e-02,-9.236707538366317749e-02,-3.196152299642562866e-02,-5.260453373193740845e-02,2.630854398012161255e-02,7.802195101976394653e-02,-9.653367102146148682e-02,-8.386786282062530518e-02,-6.745791435241699219e-02,2.261690795421600342e-02
-1.494228839874267578e-03,9.130818396806716919e-02,3.581152111291885376e-02,3.085792809724807739e-02,5.112137645483016968e-02,5.922453850507736206e-02,8.963648229837417603e-02,7.108079642057418823e-02,-6.316676735877990723e-04,-5.799902603030204773e-02,-9.823178499937057495e-02,-4.943776130676269531e-02,-6.181247066706418991e-03,-4.956402257084846497e-02,-1.180105730891227722e-01,-1.896063536405563354e-01,-1.325183808803558350e-01,-1.212202683091163635e-01,4.640775546431541443e-02,8.907844871282577515e-02,-1.219284534454345703e-02,2.003268897533416748e-01,-1.037695333361625671e-01,-2.049334198236465454e-01,-3.161515295505523682e-01,-2.301844656467437744e-01,-1.285698413848876953e-01,-1.720455139875411987e-01,-1.176052093505859375e-01,7.280964404344558716e-02,9.189193695783615112e-02,2.235560417175292969e-01,-2.698809206485748291e-01,-1.702110767364501953e-01,-2.334281951189041138e-01,-1.027871444821357727e-01,1.942969858646392822e-02,4.330154061317443848e-01,6.677461415529251099e-02,4.302092641592025757e-02,-5.158999189734458923e-02,-3.404719009995460510e-02,3.063347190618515015e-02,3.025020360946655273e-01,2.764602936804294586e-02,9.094581753015518188e-02,9.183510392904281616e-02,5.578998923301696777e-01,-2.991926372051239014e-01,-4.383709654211997986e-02,-5.990260839462280273e-02,1.457333564758300781e-03,5.930796265602111816e-03,-5.100043863058090210e-02,1.162742916494607925e-02,-9.302616119384765625e-02,1.359428316354751587e-01,3.281847536563873291e-01,2.605935186147689819e-02,6.940872222185134888e-02,9.844705462455749512e-03,-7.719668000936508179e-02,-1.203237380832433701e-02,-1.999314427375793457e-01,1.266008764505386353e-01,-2.979024052619934082e-01,-2.236687093973159790e-01,3.969544470310211182e-01,8.278769999742507935e-02,-2.299393713474273682e-02,5.877346545457839966e-02,-8.279921859502792358e-02,1.154137402772903442e-01,-8.137166500091552734e-03,1.698243021965026855e-01,9.070005267858505249e-02,7.315727323293685913e-02,-3.065218031406402588e-01,-2.155319303274154663e-01,-8.981054276227951050e-02,-9.262700378894805908e-02,-5.594034120440483093e-02,5.996108055114746094e-03,-7.379547506570816040e-02,-2.282933890819549561e-02,2.886278182268142700e-02,6.307558156549930573e-03,-1.586556434631347656e-02,-2.459056675434112549e-02,9.993562847375869751e-02,3.298366814851760864e-02,-5.166218429803848267e-02,9.326416999101638794e-02,-7.944665104150772095e-02,6.463658064603805542e-02,5.743562430143356323e-02,5.200802534818649292e-02,2.060399204492568970e-02,-5.241434648633003235e-02,7.725278288125991821e-02
-6.097073480486869812e-02,8.038259297609329224e-02,2.032162994146347046e-02,6.957869976758956909e-02,-6.108824163675308228e-02,-1.011505722999572754e-03,5.350706726312637329e-02,5.205348879098892212e-02,-4.193887114524841309e-03,-5.292494222521781921e-02,-4.924626275897026062e-02,8.346817642450332642e-02,2.639513313770294189e-01,1.304201185703277588e-01,7.112591713666915894e-02,1.441344767808914185e-01,1.600132882595062256e-01,3.504953905940055847e-02,-4.981735348701477051e-02,-9.825829416513442993e-02,-8.726461231708526611e-02,-3.845170885324478149e-02,-4.475952312350273132e-02,1.528785228729248047e-01,-1.440008636564016342e-02,-3.858964517712593079e-02,-6.334932148456573486e-02,-1.818346977233886719e-02,-7.227814197540283203e-02,3.833542019128799438e-02,6.620813161134719849e-02,-5.011817440390586853e-02,-1.034086421132087708e-01,-6.690258532762527466e-02,-1.617938131093978882e-01,-1.003032699227333069e-01,-1.373984664678573608e-02,5.304512009024620056e-02,-8.579058945178985596e-02,9.242416173219680786e-02,6.437987834215164185e-02,-9.788915514945983887e-02,-1.719534397125244141e-02,5.376752465963363647e-03,2.332676388323307037e-02,-2.261035144329071045e-02,9.332980960607528687e-02,4.526061192154884338e-02,2.464607506990432739e-01,2.195703983306884766e-02,-6.585344672203063965e-04,7.194053381681442261e-02,6.822273880243301392e-02,-4.479930177330970764e-02,-3.434374183416366577e-02,2.654843032360076904e-02,1.743603497743606567e-01,-4.100247472524642944e-02,-1.348248869180679321e-02,4.957308620214462280e-02,2.591885626316070557e-03,-9.662918001413345337e-02,2.410316839814186096e-02,-8.764661848545074463e-02,7.322563230991363525e-02,-1.540568917989730835e-01,-5.398390814661979675e-02,-1.005302220582962036e-01,-2.580734342336654663e-02,9.458944201469421387e-03,2.997452765703201294e-02,5.859629064798355103e-02,2.206993289291858673e-03,-9.996987879276275635e-03,1.241500899195671082e-01,-7.071495056152343750e-03,-2.876055538654327393e-01,-2.865365147590637207e-01,3.491117060184478760e-01,-5.672230944037437439e-02,2.017353475093841553e-02,-1.838532835245132446e-02,3.415476530790328979e-02,-6.523530185222625732e-02,-4.804393276572227478e-02,-3.856122493743896484e-02,-1.891370266675949097e-01,-5.331468582153320312e-02,-9.220006316900253296e-02,2.207054197788238525e-02,-9.775519371032714844e-03,-7.371286302804946899e-02,-5.784098058938980103e-02,-9.362029284238815308e-02,2.981732040643692017e-02,-9.237039089202880859e-02,-5.448536947369575500e-02,8.021711558103561401e-02,9.687165170907974243e-02,1.487319171428680420e-02
7.929346710443496704e-02,7.713874429464340210e-02,4.459758847951889038e-02,-7.072594016790390015e-02,-1.706735044717788696e-02,-9.344702959060668945e-02,1.920539140701293945e-02,5.284898728132247925e-02,3.294766694307327271e-02,6.996110826730728149e-02,-3.623402118682861328e-02,9.670652449131011963e-03,3.877860261127352715e-03,5.446575582027435303e-02,4.035325348377227783e-02,8.150058984756469727e-02,1.499634683132171631e-01,6.006083637475967407e-02,1.973200142383575439e-01,-6.011185795068740845e-02,-8.463411778211593628e-02,-1.736747324466705322e-01,3.486468642950057983e-02,1.340723037719726562e-01,1.409198939800262451e-01,1.579284518957138062e-01,2.120319604873657227e-01,-2.214395552873611450e-01,4.480538368225097656e-01,-5.335263162851333618e-02,4.319078475236892700e-02,-7.215028256177902222e-02,2.233220040798187256e-01,-7.040901482105255127e-02,-5.322081036865711212e-03,3.584292531013488770e-01,6.324423104524612427e-02,-2.189827412366867065e-01,-1.367156207561492920e-02,-4.949927330017089844e-02,-3.630286455154418945e-02,-1.083223968744277954e-01,4.045969992876052856e-02,-1.503877788782119751e-01,-1.923328191041946411e-01,-2.015671879053115845e-02,2.213893830776214600e-02,-2.017730474472045898e-01,5.705822706222534180e-01,4.750435799360275269e-02,-8.678817749023437500e-02,-3.846941143274307251e-02,6.874818354845046997e-02,4.206739366054534912e-02,2.442512428387999535e-03,2.163416445255279541e-01,-1.053732186555862427e-01,-1.027456149458885193e-01,1.021938025951385498e-02,1.107409596443176270e-03,7.298073917627334595e-02,-5.435378476977348328e-02,-3.648294880986213684e-02,1.103519797325134277e-01,4.856048524379730225e-02,1.710930019617080688e-01,-1.897397041320800781e-01,-1.783265471458435059e-01,-7.702596485614776611e-02,-1.924021542072296143e-02,3.918873518705368042e-02,1.968578994274139404e-02,1.719348877668380737e-01,-5.814621597528457642e-02,1.058194264769554138e-01,-1.266984641551971436e-02,-1.572168916463851929e-01,1.538635045289993286e-01,1.670370101928710938e-01,-2.546037733554840088e-02,-8.537995070219039917e-02,7.004081457853317261e-02,3.238313645124435425e-02,7.482812553644180298e-02,-6.702458858489990234e-02,9.457278996706008911e-02,1.595175452530384064e-02,5.647941678762435913e-02,-7.079114019870758057e-02,-2.255835384130477905e-02,-9.271881729364395142e-02,1.994681358337402344e-02,3.245139867067337036e-02,-8.090598881244659424e-02,6.801709532737731934e-04,5.726175755262374878e-02,2.124955505132675171e-02,-8.610039949417114258e-02,7.314080744981765747e-02,3.691736608743667603e-02
-5.329313501715660095e-02,-5.800671502947807312e-02,3.984262794256210327e-02,-3.398034721612930298e-02,-9.795828163623809814e-02,-3.627286851406097412e-02,-9.911015629768371582e-03,7.597506791353225708e-02,9.238617867231369019e-02,-6.058737263083457947e-02,1.684144884347915649e-02,9.900871664285659790e-02,-8.188933134078979492e-02,-5.258738528937101364e-03,-8.116834610700607300e-02,-1.262102574110031128e-01,-2.490176707506179810e-01,-1.191220134496688843e-01,-2.116155326366424561e-01,2.404777705669403076e-02,-1.487060636281967163e-02,1.327894479036331177e-01,-1.635926961898803711e-02,-1.341759860515594482e-01,-1.307338327169418335e-01,1.197993871755897999e-03,-2.123811542987823486e-01,-3.381469100713729858e-02,-2.371099740266799927e-01,2.652520686388015747e-02,-3.723689168691635132e-02,2.380602657794952393e-01,-2.937664687633514404e-01,-1.719102412462234497e-01,-1.659913361072540283e-01,-1.789668053388595581e-01,1.677622646093368530e-02,1.418704241514205933e-01,-4.784244298934936523e-02,2.826196700334548950e-02,5.316051095724105835e-02,-8.754060417413711548e-02,2.163767814636230469e-03,8.960369974374771118e-02,-9.674737602472305298e-02,5.637330561876296997e-02,-2.583016455173492432e-02,2.544732093811035156e-01,-2.310509234666824341e-01,-5.477699264883995056e-02,6.299047917127609253e-02,6.461215764284133911e-02,-7.603106647729873657e-02,-2.097585797309875488e-02,-3.637776523828506470e-02,-1.396206915378570557e-01,-4.552233219146728516e-02,7.812929898500442505e-02,7.108492404222488403e-02,7.611807435750961304e-02,8.205283433198928833e-02,-3.039232641458511353e-02,1.144709661602973938e-01,-4.696093872189521790e-02,-9.684803895652294159e-03,-4.885796457529067993e-02,1.798291504383087158e-01,2.490450590848922729e-01,5.758065730333328247e-02,8.508648723363876343e-02,8.021198213100433350e-03,3.471276909112930298e-02,1.590674221515655518e-01,-9.587987512350082397e-02,1.352058202028274536e-01,-1.356051117181777954e-02,-9.430588781833648682e-02,-3.749733269214630127e-01,1.835442930459976196e-01,9.474027901887893677e-02,6.365332752466201782e-02,-4.942349344491958618e-02,-7.564158737659454346e-02,-5.568477138876914978e-02,-5.935433134436607361e-02,9.252071380615234375e-03,-2.300292812287807465e-02,1.206453144550323486e-02,-7.791967689990997314e-02,3.124425560235977173e-02,5.065054446458816528e-02,-2.953491359949111938e-02,1.191363483667373657e-02,3.746964782476425171e-02,-3.081239759922027588e-02,9.606873244047164917e-02,5.618842691183090210e-02,3.197593241930007935e-02,5.671467632055282593e-02,2.439580857753753662e-03
-4.588305950164794922e-03,-1.297511160373687744e-03,3.077910095453262329e-02,-7.352819293737411499e-02,-6.983403116464614868e-02,4.339275509119033813e-02,-1.775471866130828857e-02,-7.730346918106079102e-02,-8.667651563882827759e-02,6.815608590841293335e-02,8.312565833330154419e-02,6.673238426446914673e-02,8.887416869401931763e-02,2.129368036985397339e-01,2.362541407346725464e-01,4.655969515442848206e-02,-2.484681308269500732e-01,-1.326061598956584930e-02,4.116143882274627686e-01,-7.684092223644256592e-02,-5.898718908429145813e-02,-1.588405519723892212e-01,3.121621534228324890e-02,1.074470356106758118e-01,-1.376935094594955444e-01,-6.356842815876007080e-02,7.051842659711837769e-02,7.596653699874877930e-02,2.806345224380493164e-01,-4.480569437146186829e-02,3.347960859537124634e-02,-8.916811645030975342e-02,6.552548706531524658e-02,2.251103706657886505e-02,-1.833263901062309742e-03,1.846533715724945068e-01,-4.521736130118370056e-02,1.337937414646148682e-01,-5.764797329902648926e-03,-7.131516933441162109e-03,-6.655000150203704834e-03,-1.847110502421855927e-02,3.201533108949661255e-02,-2.440284192562103271e-01,-1.128426045179367065e-01,4.176679998636245728e-02,-5.470340326428413391e-02,-2.466565966606140137e-01,2.022532522678375244e-01,-8.722803741693496704e-02,3.578841686248779297e-03,-2.442542463541030884e-02,-7.181778550148010254e-03,-4.436270147562026978e-02,6.461557000875473022e-02,1.451841890811920166e-01,7.082879543304443359e-02,6.170400232076644897e-02,-8.279112726449966431e-02,7.107729464769363403e-02,-5.058255419135093689e-02,6.940088421106338501e-02,3.701477497816085815e-02,-5.904664099216461182e-02,-3.930887673050165176e-03,-2.757450938224792480e-02,-2.451388984918594360e-01,1.511065363883972168e-01,-7.181988656520843506e-02,3.577450662851333618e-02,-7.590112835168838501e-02,1.139937341213226318e-02,6.464781612157821655e-02,-8.326220512390136719e-02,1.126579567790031433e-01,8.362790197134017944e-02,-2.402603030204772949e-01,-1.361796259880065918e-01,2.204644531011581421e-01,1.086147874593734741e-02,2.682372182607650757e-02,3.121034055948257446e-02,-8.844806998968124390e-02,1.418167352676391602e-02,-8.252891153097152710e-02,-7.898904383182525635e-03,-9.655313566327095032e-03,8.862660080194473267e-02,2.285167574882507324e-03,-1.351846754550933838e-02,2.854878455400466919e-02,3.315386921167373657e-02,8.238648623228073120e-02,7.105243951082229614e-02,-4.915998131036758423e-02,-2.624398469924926758e-02,3.826332837343215942e-02,-6.422130763530731201e-02,-7.556881755590438843e-02,5.796099454164505005e-02
5.632918328046798706e-02,7.447444647550582886e-02,6.571159511804580688e-02,1.769395917654037476e-02,-1.482214778661727905e-02,1.614745706319808960e-02,7.718922942876815796e-02,6.716478615999221802e-02,9.489273279905319214e-02,9.904772788286209106e-02,1.210351288318634033e-02,8.453429490327835083e-02,4.689429700374603271e-02,-1.075010560452938080e-02,1.713618263602256775e-02,-2.298017442226409912e-01,1.150644943118095398e-01,2.341980859637260437e-02,-4.772728681564331055e-02,-8.209683001041412354e-03,5.361671000719070435e-02,-1.490140110254287720e-01,-4.104746878147125244e-02,-3.720797225832939148e-02,5.170986987650394440e-04,-9.424904733896255493e-02,-2.194973230361938477e-01,-1.163525879383087158e-01,-3.859353810548782349e-02,-2.316448837518692017e-02,9.441537410020828247e-02,-2.398826479911804199e-01,-7.513087987899780273e-02,-7.204578816890716553e-02,-2.426226586103439331e-01,-1.050983443856239319e-01,7.629948109388351440e-02,-1.214298605918884277e-01,-8.378829061985015869e-02,8.011660724878311157e-02,-5.431449413299560547e-02,-5.737455934286117554e-02,-1.791179180145263672e-03,-2.014078497886657715e-01,-1.284252107143402100e-01,-3.401158004999160767e-02,-4.628140851855278015e-02,-1.014868840575218201e-01,1.953537166118621826e-01,-5.108935758471488953e-02,6.802561134099960327e-02,-2.566619217395782471e-02,-1.018675416707992554e-02,-9.186697751283645630e-02,3.921996057033538818e-02,-2.818469516932964325e-02,2.246133089065551758e-01,5.912637710571289062e-02,3.683709353208541870e-02,-8.558155596256256104e-02,9.165865927934646606e-02,2.175881713628768921e-02,5.644378438591957092e-02,6.642438471317291260e-02,1.244893670082092285e-01,-5.230923742055892944e-02,-1.614011526107788086e-01,2.437448501586914062e-01,-5.363024398684501648e-02,-3.509926795959472656e-02,1.659867912530899048e-02,-4.270612075924873352e-02,6.048600003123283386e-02,7.581072300672531128e-02,1.805550307035446167e-01,9.700088948011398315e-02,-3.011303246021270752e-01,-1.723471283912658691e-01,4.675464332103729248e-01,-7.546500861644744873e-02,-1.996265351772308350e-02,-2.075616270303726196e-02,4.778861999511718750e-03,-5.268318578600883484e-02,4.095030575990676880e-02,-3.768525272607803345e-02,-1.842175126075744629e-01,-8.204784244298934937e-02,-6.130310520529747009e-02,5.730079859495162964e-02,-7.190321385860443115e-02,-7.972029596567153931e-02,-2.229992300271987915e-02,2.399489283561706543e-03,-3.669819980859756470e-02,2.445270866155624390e-02,3.305739909410476685e-02,6.011576205492019653e-02,-3.153121471405029297e-02,-1.822390407323837280e-02
-5.120874568819999695e-02,6.677759438753128052e-02,-7.448770850896835327e-02,8.394937962293624878e-02,3.140486031770706177e-02,-8.879051357507705688e-02,9.879869967699050903e-02,9.918007999658584595e-02,8.233083039522171021e-02,6.235832720994949341e-02,-2.747128903865814209e-02,1.055938005447387695e-02,1.144600659608840942e-01,2.183570712804794312e-01,3.322342336177825928e-01,9.879142791032791138e-02,1.495015323162078857e-01,6.885480880737304688e-02,1.478893756866455078e-01,9.796440601348876953e-03,8.589719980955123901e-02,-4.603832215070724487e-02,1.317085623741149902e-01,3.136530816555023193e-01,1.652288287878036499e-01,1.123967543244361877e-01,-1.560143474489450455e-02,-6.540210545063018799e-02,-1.684695929288864136e-01,8.610711246728897095e-02,-7.377525418996810913e-02,1.685013063251972198e-02,-7.147502899169921875e-02,1.316274255514144897e-01,5.918981879949569702e-02,-2.252099066972732544e-01,-8.173148334026336670e-02,-2.339439243078231812e-01,-8.540115505456924438e-02,-2.104020118713378906e-02,-6.694242358207702637e-02,-1.125994995236396790e-01,5.100812762975692749e-02,-2.292955853044986725e-02,-2.294547557830810547e-01,9.024573117494583130e-02,2.874074131250381470e-02,-1.325773596763610840e-01,-1.749339997768402100e-01,-2.079868316650390625e-02,2.643067389726638794e-02,9.363066405057907104e-02,3.886181861162185669e-02,9.771110117435455322e-02,-1.424237061291933060e-02,1.315506100654602051e-01,5.770109221339225769e-02,-2.280151247978210449e-01,8.368626236915588379e-03,2.632928639650344849e-02,-8.964859694242477417e-02,8.705987781286239624e-02,1.931462064385414124e-02,-1.179973501712083817e-02,-1.404782533645629883e-01,9.752999246120452881e-02,1.195498481392860413e-01,-2.219081521034240723e-01,7.259292155504226685e-02,-7.348786294460296631e-02,-5.284961685538291931e-02,-3.112627565860748291e-02,-1.069059371948242188e-01,7.782064378261566162e-03,-1.733821481466293335e-01,-5.881955847144126892e-02,2.136138826608657837e-01,1.330073773860931396e-01,-1.196835711598396301e-01,-7.701946794986724854e-02,7.573287934064865112e-02,-1.128524541854858398e-02,-9.342665970325469971e-02,-8.429862558841705322e-02,-7.920645177364349365e-03,-9.677118062973022461e-02,-8.829541504383087158e-02,9.625983983278274536e-02,-3.428058326244354248e-02,-3.829616308212280273e-02,-1.821663230657577515e-02,9.416732937097549438e-02,-2.842930704355239868e-02,8.555623143911361694e-02,-7.025494426488876343e-02,6.619941443204879761e-02,4.157506674528121948e-02,6.344809383153915405e-02,-1.226428896188735962e-02,7.286769896745681763e-02
-9.944864362478256226e-02,-4.185440763831138611e-02,6.277892738580703735e-02,-7.564951479434967041e-02,1.557862758636474609e-02,4.328186064958572388e-02,-1.614357531070709229e-02,1.825289428234100342e-02,3.577182441949844360e-02,-4.598425701260566711e-02,-3.339903056621551514e-02,-1.078514009714126587e-02,3.112476132810115814e-02,-1.604935079813003540e-01,-1.044964268803596497e-01,-1.035294830799102783e-01,-8.928983658552169800e-02,-2.337006479501724243e-01,-2.355404049158096313e-01,-5.512632057070732117e-02,-1.843754202127456665e-02,-7.777185738086700439e-02,-2.351406365633010864e-01,-1.558167132316157222e-04,-2.347937077283859253e-01,-2.445964068174362183e-01,-9.727208316326141357e-02,-1.815423816442489624e-01,-2.377083003520965576e-01,5.961807817220687866e-02,-7.651720941066741943e-02,-4.135653376579284668e-02,-1.279201358556747437e-01,-1.778482496738433838e-01,-2.362247854471206665e-01,-2.398315519094467163e-01,2.514141052961349487e-02,-2.851314470171928406e-02,7.779315859079360962e-02,-7.950937747955322266e-02,-3.562629222869873047e-03,-9.960950165987014771e-02,1.107396185398101807e-02,-7.550910115242004395e-02,-1.931871175765991211e-01,-7.588976621627807617e-02,-5.311692878603935242e-02,-7.751922123134136200e-03,-1.510937660932540894e-01,3.210472315549850464e-02,2.461962401866912842e-02,-7.922694832086563110e-02,2.525817602872848511e-02,5.637778341770172119e-02,4.432359337806701660e-02,2.240052446722984314e-02,-3.824147582054138184e-02,-6.710132956504821777e-02,-4.017040133476257324e-03,7.968903332948684692e-02,-6.853303313255310059e-02,2.338729798793792725e-03,-5.414980277419090271e-02,-8.865736424922943115e-02,8.495299518108367920e-02,-1.249925717711448669e-01,-3.671691194176673889e-02,1.622630357742309570e-01,2.868855744600296021e-02,-8.538221567869186401e-02,-4.215787723660469055e-02,-5.925278738141059875e-02,-5.072974786162376404e-02,-1.630405336618423462e-02,3.841446712613105774e-02,-9.556964039802551270e-03,3.674713671207427979e-01,5.135164260864257812e-01,2.882485687732696533e-01,-3.357442468404769897e-02,-6.633968651294708252e-02,-5.109218508005142212e-02,3.992504626512527466e-02,-2.831979095935821533e-02,-2.163286507129669189e-02,-7.563009858131408691e-03,-2.331953197717666626e-01,5.308421701192855835e-02,1.751653105020523071e-02,3.934077173471450806e-02,2.497611194849014282e-02,6.439756602048873901e-02,7.271457463502883911e-02,-1.754151284694671631e-02,-8.874707669019699097e-02,-6.014704704284667969e-03,-2.375767379999160767e-02,-4.957513883709907532e-02,9.729591757059097290e-02,4.707606881856918335e-02
8.386857062578201294e-02,-5.807739496231079102e-02,-3.074444830417633057e-03,7.346542924642562866e-02,9.156221896409988403e-02,-2.214100211858749390e-02,3.167905658483505249e-02,9.725689888000488281e-03,-4.669228941202163696e-02,7.528705149888992310e-02,-4.255303367972373962e-02,-9.310332685708999634e-02,-9.526995569467544556e-02,-4.549467191100120544e-02,-2.963273413479328156e-02,1.991713792085647583e-02,-8.690491318702697754e-02,-1.133730337023735046e-01,-1.342654824256896973e-01,4.347313195466995239e-02,-9.719977527856826782e-02,-2.014071196317672729e-01,-1.863344758749008179e-01,-1.581888496875762939e-01,-1.331977844238281250e-01,-1.224116832017898560e-01,-2.051642239093780518e-01,-2.141615152359008789e-01,-1.708465069532394409e-01,-7.354334741830825806e-02,-2.051863819360733032e-02,-3.122862279415130615e-01,-1.804349720478057861e-01,-1.785020083189010620e-01,-1.221165657043457031e-01,-1.861568838357925415e-01,7.282838225364685059e-03,-2.030298560857772827e-01,-6.539702415466308594e-02,-5.868504196405410767e-02,5.274248868227005005e-02,-2.049601376056671143e-01,-8.196587860584259033e-02,-1.903161257505416870e-01,-1.266064196825027466e-01,6.829728931188583374e-02,7.460626214742660522e-02,-1.260843873023986816e-01,-2.918067388236522675e-02,-2.153549343347549438e-02,-6.414312124252319336e-02,6.127905100584030151e-02,4.487203806638717651e-02,-9.027200192213058472e-02,2.249793894588947296e-02,-4.904887825250625610e-02,1.311961263418197632e-01,2.735520713031291962e-02,5.996269732713699341e-02,4.038270562887191772e-02,-5.733023956418037415e-02,-5.090517923235893250e-02,-6.707254052162170410e-02,-4.938368871808052063e-02,7.518553733825683594e-02,-1.726069301366806030e-01,3.599938750267028809e-01,7.365892827510833740e-02,-7.003603130578994751e-02,6.514111906290054321e-02,-4.512883350253105164e-02,4.281321913003921509e-02,-7.677707076072692871e-02,-6.072681024670600891e-02,7.901267707347869873e-02,1.748377084732055664e-02,1.734648793935775757e-01,4.300587773323059082e-01,5.471863150596618652e-01,5.306483060121536255e-02,-1.454074680805206299e-02,-9.753959625959396362e-02,-1.065532118082046509e-02,-2.801557630300521851e-02,-5.437911674380302429e-02,-9.385341405868530273e-02,-1.957606226205825806e-01,-2.950802445411682129e-03,7.964812964200973511e-02,7.238168269395828247e-02,-6.366923451423645020e-02,-9.749428182840347290e-02,2.520001679658889771e-02,7.912950962781906128e-02,3.746334463357925415e-02,1.392857730388641357e-02,8.640842884778976440e-02,-1.596640050411224365e-02,-8.750268071889877319e-02,-6.696641445159912109e-03
9.612555056810379028e-02,-6.747181713581085205e-02,-2.279120683670043945e-02,2.351150661706924438e-02,-6.743606925010681152e-02,-1.260433346033096313e-02,5.265446752309799194e-02,-4.404684528708457947e-02,-2.190031111240386963e-03,1.667760312557220459e-03,-5.846557766199111938e-02,-6.858065724372863770e-03,2.621775679290294647e-02,-6.130490079522132874e-02,-9.373525157570838928e-03,1.414645928889513016e-02,6.132716313004493713e-02,-1.967753097414970398e-02,-1.953478716313838959e-02,9.126283228397369385e-03,-9.752189368009567261e-02,8.072505146265029907e-02,-9.539393335580825806e-02,5.763181671500205994e-02,-1.029203366488218307e-02,-1.927670240402221680e-01,-2.520593702793121338e-01,-5.631150305271148682e-02,-1.816234439611434937e-01,-3.401090949773788452e-02,-5.281573534011840820e-02,1.647668331861495972e-01,-2.041509598493576050e-01,-3.909586742520332336e-02,-1.621177345514297485e-01,-7.960169762372970581e-02,1.291215419769287109e-02,1.836272478103637695e-01,-6.656251847743988037e-02,-8.573701232671737671e-02,1.327912509441375732e-02,-1.306263506412506104e-01,-1.298978179693222046e-02,3.258646279573440552e-02,-1.570457667112350464e-01,-9.969706833362579346e-02,5.632858723402023315e-02,6.126769259572029114e-02,2.402811497449874878e-02,3.672439604997634888e-02,-6.630893051624298096e-02,5.074272304773330688e-02,-6.616435199975967407e-02,-9.519078582525253296e-02,4.590516164898872375e-02,1.170229911804199219e-01,1.999333649873733521e-01,1.275148093700408936e-01,-4.315719753503799438e-02,-1.590336859226226807e-02,-8.194563537836074829e-02,3.178127855062484741e-02,7.680043578147888184e-02,-8.016869425773620605e-02,1.155001968145370483e-01,-4.274925217032432556e-02,-1.154567301273345947e-01,1.099106669425964355e-01,-7.809597253799438477e-02,-1.844185590744018555e-02,-1.419188082218170166e-02,-5.139446258544921875e-02,1.515200585126876831e-01,9.953597933053970337e-02,1.786205470561981201e-01,-4.411682486534118652e-03,-3.355611860752105713e-01,-3.590850830078125000e-01,2.204981595277786255e-01,-4.699945449829101562e-02,7.913961261510848999e-02,-6.372181326150894165e-02,5.784609168767929077e-02,5.673769861459732056e-02,-7.647566497325897217e-02,-1.562196016311645508e-02,-1.218641176819801331e-01,7.750349491834640503e-02,-2.799533307552337646e-02,-2.961973845958709717e-02,-8.479799330234527588e-02,5.756764858961105347e-02,3.330804407596588135e-03,-4.115098714828491211e-02,-1.422701776027679443e-02,-9.673479944467544556e-02,1.290766894817352295e-02,4.685633629560470581e-02,3.112701326608657837e-02,2.458342164754867554e-02
